2 10
../test_input/doc1_n.txt 0.0074567 0.0071882 -0.0022695 -0.0031173 0.0014087 0.0019141 -0.0010104 -0.0018903 0.0030309 0.0035394 
../test_input/doc2_n.txt 0.0021285 0.005156 -0.0061813 -0.0020143 -0.000982 -0.0007379 0.0021633 0.0045968 0.0018107 -0.00414 
